svm_type c_svc
kernel_type rbf
gamma 0.10881882041201557
nr_class 2
total_sv 404
rho 19.522803315619168
label 1 -1
nr_sv 197 207
SV
0.054301632256420401 1:0.95145333 2:0.15885225 3:-1.5441769 4:-1.5465804 5:-1.2924455 6:-1.5217348 
64 1:-0.1142426 2:-0.92620411 3:-1.1070797 4:0.65602357 5:-1.7232319 6:1.147351 
64 1:-1.1799385 2:-0.92620411 3:-0.23288537 4:0.21550277 5:-8.6157289e-05 6:0.70250338 
64 1:-2.2456345 2:-0.92620411 3:0.2042118 4:-0.22501802 5:0.43070029 6:-0.63203952 
44.967864865132213 1:-1.1799385 2:0.15885225 3:0.64130896 4:-1.1060596 5:-8.6157289e-05 6:-1.5217348 
64 1:0.95145333 2:-0.92620411 3:0.64130896 4:0.65602357 5:0.86148673 6:1.147351 
64 1:-0.1142426 2:0.15885225 3:-1.5441769 4:0.65602357 5:-1.2924455 6:0.25765575 
28.003713334811046 1:-1.1799385 2:-0.92620411 3:-0.23288537 4:1.0965444 5:-8.6157289e-05 6:0.70250338 
51.627528472273923 1:-0.1142426 2:0.15885225 3:-1.5441769 4:-1.1060596 5:-1.7232319 6:-1.5217348 
19.967292904316128 1:0.95145333 2:1.2439086 3:0.64130896 4:0.21550277 5:0.86148673 6:-0.18719188 
64 1:-2.2456345 2:-0.92620411 3:0.64130896 4:0.65602357 5:0.86148673 6:0.25765575 
64 1:-1.1799385 2:-0.92620411 3:0.64130896 4:-1.5465804 5:-8.6157289e-05 6:-1.0768871 
64 1:0.95145333 2:1.2439086 3:0.64130896 4:-0.22501802 5:0.86148673 6:0.25765575 
36.891372277420849 1:-1.1799385 2:-0.92620411 3:0.2042118 4:1.0965444 5:-0.4308726 6:1.5921986 
64 1:-2.2456345 2:-0.92620411 3:0.2042118 4:-0.66553882 5:-0.4308726 6:-1.0768871 
64 1:-0.1142426 2:-0.92620411 3:0.2042118 4:-0.66553882 5:0.43070029 6:-1.0768871 
64 1:-0.1142426 2:0.15885225 3:-1.5441769 4:-1.5465804 5:-1.7232319 6:-1.0768871 
55.378015588858446 1:-1.1799385 2:-0.92620411 3:1.5155033 4:0.21550277 5:0.86148673 6:0.70250338 
64 1:-2.2456345 2:-0.92620411 3:-0.23288537 4:-1.5465804 5:-0.86165904 6:-1.0768871 
48.258647623341609 1:-2.2456345 2:-0.92620411 3:0.64130896 4:-0.22501802 5:-8.6157289e-05 6:0.25765575 
21.265418600447436 1:-0.1142426 2:-0.92620411 3:-0.66998253 4:-0.22501802 5:-0.4308726 6:0.25765575 
64 1:-0.1142426 2:1.2439086 3:-0.23288537 4:-1.5465804 5:-0.86165904 6:-1.5217348 
64 1:-1.1799385 2:-0.92620411 3:1.0784061 4:1.5370652 5:1.2922732 6:1.147351 
64 1:-1.1799385 2:-0.92620411 3:0.2042118 4:0.21550277 5:-0.4308726 6:-0.18719188 
64 1:-0.1142426 2:0.15885225 3:-1.1070797 4:1.0965444 5:-1.7232319 6:0.70250338 
64 1:-2.2456345 2:-0.92620411 3:1.0784061 4:-0.22501802 5:1.2922732 6:0.25765575 
42.17277388590459 1:-1.1799385 2:-0.92620411 3:0.2042118 4:0.21550277 5:0.43070029 6:0.70250338 
64 1:-0.1142426 2:-0.92620411 3:-0.66998253 4:-0.66553882 5:-1.2924455 6:-0.18719188 
9.5072899605894641 1:-2.2456345 2:-0.92620411 3:0.64130896 4:-0.22501802 5:0.86148673 6:0.25765575 
64 1:0.95145333 2:0.15885225 3:-1.5441769 4:0.65602357 5:-1.2924455 6:1.147351 
24.941917145635909 1:-0.1142426 2:1.2439086 3:1.5155033 4:-1.1060596 5:0.86148673 6:-0.63203952 
64 1:0.95145333 2:2.328965 3:0.64130896 4:1.0965444 5:0.86148673 6:0.70250338 
64 1:-0.1142426 2:0.15885225 3:-0.23288537 4:1.0965444 5:-0.86165904 6:1.5921986 
64 1:-1.1799385 2:0.15885225 3:0.64130896 4:-0.22501802 5:-8.6157289e-05 6:0.25765575 
64 1:-1.1799385 2:0.15885225 3:0.2042118 4:0.21550277 5:0.43070029 6:-0.18719188 
64 1:0.95145333 2:-0.92620411 3:0.2042118 4:1.0965444 5:-0.4308726 6:1.5921986 
64 1:-1.1799385 2:0.15885225 3:1.0784061 4:-0.66553882 5:1.2922732 6:-0.18719188 
42.29541496711515 1:0.95145333 2:-0.92620411 3:0.2042118 4:1.0965444 5:0.43070029 6:0.70250338 
52.549602267740546 1:-0.1142426 2:-0.92620411 3:-1.5441769 4:-0.22501802 5:-1.2924455 6:-0.63203952 
32.147291854707511 1:0.95145333 2:1.2439086 3:-1.5441769 4:1.0965444 5:-1.7232319 6:1.5921986 
27.695795175841944 1:-2.2456345 2:-0.92620411 3:-0.66998253 4:-0.66553882 5:-0.86165904 6:-1.0768871 
64 1:-0.1142426 2:-0.92620411 3:0.64130896 4:0.65602357 5:-8.6157289e-05 6:0.25765575 
64 1:-2.2456345 2:-0.92620411 3:1.0784061 4:-1.1060596 5:0.43070029 6:-0.63203952 
64 1:0.95145333 2:-0.92620411 3:-1.1070797 4:1.5370652 5:-1.7232319 6:1.147351 
64 1:-0.1142426 2:1.2439086 3:0.64130896 4:-1.1060596 5:-8.6157289e-05 6:-0.63203952 
64 1:0.95145333 2:1.2439086 3:0.64130896 4:-1.1060596 5:0.86148673 6:-0.63203952 
64 1:-1.1799385 2:-0.92620411 3:1.0784061 4:-1.1060596 5:1.2922732 6:-0.63203952 
32.295248583427671 1:-1.1799385 2:0.15885225 3:1.0784061 4:0.65602357 5:1.2922732 6:0.25765575 
42.467272773245945 1:0.95145333 2:0.15885225 3:1.5155033 4:-1.1060596 5:0.86148673 6:-1.5217348 
64 1:-0.1142426 2:-0.92620411 3:-0.66998253 4:-0.22501802 5:-1.2924455 6:0.25765575 
49.771205880512333 1:-1.1799385 2:-0.92620411 3:0.64130896 4:1.0965444 5:0.86148673 6:1.5921986 
64 1:-0.1142426 2:-0.92620411 3:1.5155033 4:0.21550277 5:0.86148673 6:0.70250338 
64 1:-0.1142426 2:-0.92620411 3:-1.1070797 4:-0.66553882 5:-1.7232319 6:-1.0768871 
64 1:0.95145333 2:-0.92620411 3:-1.1070797 4:0.21550277 5:-0.86165904 6:0.70250338 
64 1:-2.2456345 2:-0.92620411 3:1.0784061 4:-0.66553882 5:0.43070029 6:-1.0768871 
33.723124928630604 1:-1.1799385 2:-0.92620411 3:-0.23288537 4:0.21550277 5:-0.86165904 6:-0.18719188 
13.615903687758324 1:-0.1142426 2:-0.92620411 3:1.0784061 4:-0.66553882 5:0.43070029 6:-0.18719188 
64 1:-2.2456345 2:-0.92620411 3:-0.23288537 4:-1.1060596 5:-0.4308726 6:-1.5217348 
64 1:0.95145333 2:-0.92620411 3:-0.66998253 4:-0.66553882 5:-0.4308726 6:-0.18719188 
40.683563191796551 1:0.95145333 2:1.2439086 3:-1.1070797 4:1.0965444 5:-0.86165904 6:1.5921986 
64 1:-1.1799385 2:-0.92620411 3:-0.66998253 4:0.65602357 5:-1.2924455 6:0.25765575 
45.091846914423783 1:0.95145333 2:1.2439086 3:1.0784061 4:-1.5465804 5:0.43070029 6:-1.5217348 
64 1:0.95145333 2:0.15885225 3:-1.1070797 4:0.21550277 5:-1.7232319 6:0.70250338 
24.027122061549544 1:-1.1799385 2:0.15885225 3:0.2042118 4:-0.22501802 5:0.43070029 6:0.25765575 
64 1:0.95145333 2:-0.92620411 3:-0.23288537 4:0.21550277 5:-8.6157289e-05 6:0.70250338 
64 1:-0.1142426 2:0.15885225 3:0.2042118 4:-1.1060596 5:0.43070029 6:-0.63203952 
60.510539365914575 1:-0.1142426 2:0.15885225 3:1.0784061 4:0.21550277 5:1.2922732 6:-0.18719188 
27.535656967080563 1:-0.1142426 2:0.15885225 3:-1.1070797 4:0.21550277 5:-0.86165904 6:-0.18719188 
64 1:0.95145333 2:2.328965 3:0.64130896 4:-0.66553882 5:-8.6157289e-05 6:-1.0768871 
64 1:-0.1142426 2:1.2439086 3:-0.23288537 4:-1.5465804 5:-8.6157289e-05 6:-1.0768871 
17.556392867908936 1:-0.1142426 2:1.2439086 3:1.5155033 4:0.21550277 5:0.86148673 6:-0.18719188 
64 1:0.95145333 2:2.328965 3:-0.23288537 4:-1.1060596 5:-8.6157289e-05 6:-1.5217348 
21.358428700345758 1:0.95145333 2:-0.92620411 3:-0.66998253 4:0.21550277 5:-0.4308726 6:-0.18719188 
12.706194184320983 1:-1.1799385 2:-0.92620411 3:-1.5441769 4:0.65602357 5:-1.7232319 6:0.25765575 
64 1:0.95145333 2:1.2439086 3:-0.66998253 4:0.65602357 5:-1.2924455 6:0.25765575 
64 1:0.95145333 2:1.2439086 3:1.5155033 4:-1.1060596 5:0.86148673 6:-0.63203952 
52.416713007525821 1:0.95145333 2:-0.92620411 3:1.0784061 4:1.0965444 5:1.2922732 6:1.5921986 
64 1:0.95145333 2:1.2439086 3:0.2042118 4:0.65602357 5:0.43070029 6:0.25765575 
35.9692674484657 1:0.95145333 2:1.2439086 3:1.0784061 4:0.21550277 5:1.2922732 6:-0.18719188 
55.275625946694134 1:-0.1142426 2:-0.92620411 3:0.2042118 4:1.5370652 5:-0.4308726 6:1.147351 
11.200869255906753 1:-0.1142426 2:-0.92620411 3:1.5155033 4:1.0965444 5:0.86148673 6:1.5921986 
64 1:0.95145333 2:1.2439086 3:-1.5441769 4:-0.22501802 5:-1.2924455 6:-0.63203952 
61.68757499876299 1:-0.1142426 2:0.15885225 3:0.2042118 4:-1.5465804 5:-8.6157289e-05 6:-1.0768871 
11.052486806170775 1:-2.2456345 2:-0.92620411 3:-0.23288537 4:-0.66553882 5:-8.6157289e-05 6:-0.18719188 
57.684183395699648 1:-1.1799385 2:-0.92620411 3:-1.1070797 4:1.0965444 5:-0.86165904 6:0.70250338 
57.964498211799743 1:-2.2456345 2:-0.92620411 3:1.0784061 4:1.0965444 5:0.43070029 6:0.70250338 
64 1:-1.1799385 2:-0.92620411 3:1.0784061 4:-0.66553882 5:0.43070029 6:-0.18719188 
64 1:0.95145333 2:2.328965 3:0.64130896 4:-0.22501802 5:0.86148673 6:0.25765575 
64 1:-1.1799385 2:0.15885225 3:0.2042118 4:-1.1060596 5:-0.4308726 6:-0.63203952 
55.885762677322496 1:0.95145333 2:1.2439086 3:0.2042118 4:1.0965444 5:-0.4308726 6:1.5921986 
64 1:0.95145333 2:1.2439086 3:-1.5441769 4:-0.66553882 5:-1.2924455 6:-1.0768871 
64 1:0.95145333 2:-0.92620411 3:-1.5441769 4:-1.5465804 5:-1.2924455 6:-1.5217348 
64 1:0.95145333 2:0.15885225 3:1.0784061 4:1.0965444 5:0.43070029 6:0.70250338 
64 1:-0.1142426 2:-0.92620411 3:0.2042118 4:-1.1060596 5:-0.4308726 6:-0.63203952 
36.337779624446405 1:0.95145333 2:0.15885225 3:1.0784061 4:-0.22501802 5:0.43070029 6:0.25765575 
58.235572130576749 1:-1.1799385 2:0.15885225 3:1.5155033 4:-0.22501802 5:0.86148673 6:0.25765575 
64 1:-0.1142426 2:-0.92620411 3:-0.66998253 4:-0.22501802 5:-0.4308726 6:-0.63203952 
15.513453241644616 1:0.95145333 2:0.15885225 3:1.5155033 4:-0.22501802 5:0.86148673 6:-0.63203952 
64 1:0.95145333 2:-0.92620411 3:1.5155033 4:-0.66553882 5:0.86148673 6:-1.0768871 
64 1:-0.1142426 2:0.15885225 3:-1.1070797 4:0.65602357 5:-0.86165904 6:0.25765575 
18.17872395808222 1:-0.1142426 2:1.2439086 3:1.5155033 4:1.5370652 5:1.2922732 6:1.147351 
15.264264359010861 1:-1.1799385 2:-0.92620411 3:0.64130896 4:-0.22501802 5:-8.6157289e-05 6:-0.63203952 
64 1:-1.1799385 2:-0.92620411 3:-0.23288537 4:-1.1060596 5:-0.86165904 6:-0.63203952 
41.550401613148651 1:-1.1799385 2:0.15885225 3:1.5155033 4:-1.5465804 5:0.86148673 6:-1.0768871 
64 1:0.95145333 2:-0.92620411 3:-1.1070797 4:0.65602357 5:-0.86165904 6:0.25765575 
59.614410380844042 1:0.95145333 2:1.2439086 3:0.64130896 4:0.21550277 5:0.86148673 6:0.70250338 
64 1:0.95145333 2:2.328965 3:1.0784061 4:-1.1060596 5:0.43070029 6:-1.5217348 
64 1:0.95145333 2:1.2439086 3:-0.23288537 4:0.21550277 5:-8.6157289e-05 6:0.70250338 
64 1:0.95145333 2:-0.92620411 3:0.64130896 4:-1.1060596 5:0.86148673 6:-0.63203952 
64 1:-0.1142426 2:-0.92620411 3:0.2042118 4:-1.5465804 5:-8.6157289e-05 6:-1.0768871 
64 1:0.95145333 2:2.328965 3:1.5155033 4:-0.66553882 5:0.86148673 6:-0.18719188 
64 1:-2.2456345 2:-0.92620411 3:-0.66998253 4:-0.66553882 5:-0.4308726 6:-0.18719188 
64 1:-1.1799385 2:0.15885225 3:1.5155033 4:-0.66553882 5:0.86148673 6:-1.0768871 
1.0758589594642836 1:-0.1142426 2:-0.92620411 3:-1.1070797 4:-0.22501802 5:-1.7232319 6:-0.63203952 
64 1:0.95145333 2:-0.92620411 3:0.64130896 4:-1.5465804 5:0.86148673 6:-1.5217348 
64 1:-0.1142426 2:0.15885225 3:-0.23288537 4:-0.22501802 5:-0.86165904 6:0.25765575 
64 1:0.95145333 2:-0.92620411 3:-1.1070797 4:1.0965444 5:-1.7232319 6:0.70250338 
11.188386201692383 1:-0.1142426 2:-0.92620411 3:1.0784061 4:1.0965444 5:1.2922732 6:0.70250338 
30.498058382762917 1:0.95145333 2:0.15885225 3:-1.1070797 4:1.0965444 5:-1.7232319 6:0.70250338 
64 1:-1.1799385 2:-0.92620411 3:0.2042118 4:-0.66553882 5:0.43070029 6:-1.0768871 
64 1:0.95145333 2:-0.92620411 3:0.64130896 4:-0.66553882 5:-8.6157289e-05 6:-0.18719188 
64 1:-1.1799385 2:-0.92620411 3:-0.66998253 4:-0.66553882 5:-1.2924455 6:-0.18719188 
64 1:0.95145333 2:0.15885225 3:-0.66998253 4:-0.22501802 5:-1.2924455 6:-0.63203952 
64 1:-1.1799385 2:-0.92620411 3:1.0784061 4:-1.5465804 5:0.43070029 6:-1.0768871 
64 1:0.95145333 2:0.15885225 3:-0.23288537 4:-0.22501802 5:-8.6157289e-05 6:0.25765575 
51.142391309782582 1:0.95145333 2:-0.92620411 3:0.2042118 4:-0.22501802 5:-0.4308726 6:0.25765575 
64 1:0.95145333 2:2.328965 3:-0.23288537 4:-1.5465804 5:-0.86165904 6:-1.0768871 
52.656521334176212 1:-2.2456345 2:-0.92620411 3:1.0784061 4:0.65602357 5:1.2922732 6:1.147351 
13.540345834784587 1:-1.1799385 2:0.15885225 3:0.64130896 4:-0.66553882 5:0.86148673 6:-1.0768871 
64 1:0.95145333 2:0.15885225 3:-0.66998253 4:1.5370652 5:-0.4308726 6:1.147351 
20.61576931302837 1:0.95145333 2:2.328965 3:1.0784061 4:0.21550277 5:1.2922732 6:-0.18719188 
64 1:0.95145333 2:-0.92620411 3:0.2042118 4:0.65602357 5:-0.4308726 6:1.147351 
64 1:-0.1142426 2:-0.92620411 3:-1.5441769 4:1.0965444 5:-1.2924455 6:1.5921986 
4.0962285085895216 1:0.95145333 2:1.2439086 3:1.5155033 4:-1.5465804 5:1.2922732 6:-1.0768871 
64 1:-0.1142426 2:0.15885225 3:-1.1070797 4:0.21550277 5:-1.7232319 6:-0.18719188 
64 1:0.95145333 2:0.15885225 3:1.5155033 4:1.5370652 5:0.86148673 6:1.147351 
36.006952230023835 1:-0.1142426 2:1.2439086 3:1.0784061 4:-1.1060596 5:0.43070029 6:-1.5217348 
37.600007664841272 1:0.95145333 2:-0.92620411 3:-0.66998253 4:-0.22501802 5:-1.2924455 6:-0.63203952 
28.955030764566612 1:-1.1799385 2:-0.92620411 3:-1.5441769 4:1.0965444 5:-1.2924455 6:1.5921986 
55.879454588916509 1:-2.2456345 2:-0.92620411 3:1.5155033 4:-1.5465804 5:1.2922732 6:-1.0768871 
64 1:-1.1799385 2:-0.92620411 3:1.5155033 4:-0.22501802 5:0.86148673 6:-0.63203952 
5.5792355709976311 1:-1.1799385 2:0.15885225 3:1.5155033 4:1.5370652 5:1.2922732 6:1.147351 
64 1:-0.1142426 2:1.2439086 3:1.5155033 4:-1.5465804 5:0.86148673 6:-1.0768871 
13.854455600507725 1:0.95145333 2:1.2439086 3:1.5155033 4:1.0965444 5:0.86148673 6:0.70250338 
64 1:0.95145333 2:1.2439086 3:1.0784061 4:-0.66553882 5:0.43070029 6:-0.18719188 
64 1:-1.1799385 2:-0.92620411 3:0.2042118 4:-0.66553882 5:-0.4308726 6:-1.0768871 
64 1:-0.1142426 2:-0.92620411 3:-1.1070797 4:0.21550277 5:-0.86165904 6:0.70250338 
64 1:0.95145333 2:0.15885225 3:-1.1070797 4:-0.66553882 5:-1.7232319 6:-1.0768871 
64 1:0.95145333 2:0.15885225 3:0.2042118 4:-0.22501802 5:-0.4308726 6:0.25765575 
64 1:-1.1799385 2:-0.92620411 3:-1.5441769 4:-0.22501802 5:-1.2924455 6:0.25765575 
2.9338252847046151 1:-0.1142426 2:0.15885225 3:-1.5441769 4:1.0965444 5:-1.7232319 6:1.5921986 
64 1:0.95145333 2:-0.92620411 3:-1.1070797 4:-1.1060596 5:-1.7232319 6:-1.5217348 
64 1:0.95145333 2:-0.92620411 3:0.2042118 4:-0.22501802 5:0.43070029 6:-0.63203952 
52.132327060211821 1:-1.1799385 2:-0.92620411 3:1.5155033 4:-0.66553882 5:0.86148673 6:-1.0768871 
64 1:0.95145333 2:2.328965 3:0.64130896 4:-0.22501802 5:0.86148673 6:-0.63203952 
64 1:-0.1142426 2:0.15885225 3:0.2042118 4:-0.22501802 5:-0.4308726 6:0.25765575 
27.368823669463854 1:0.95145333 2:2.328965 3:-1.5441769 4:-1.1060596 5:-1.2924455 6:-1.5217348 
64 1:0.95145333 2:1.2439086 3:-0.23288537 4:0.21550277 5:-0.86165904 6:0.70250338 
64 1:0.95145333 2:1.2439086 3:-1.1070797 4:0.65602357 5:-0.86165904 6:1.147351 
64 1:-0.1142426 2:0.15885225 3:0.2042118 4:-0.66553882 5:0.43070029 6:-1.0768871 
41.139057125534208 1:0.95145333 2:-0.92620411 3:-1.5441769 4:-1.5465804 5:-1.7232319 6:-1.0768871 
64 1:-1.1799385 2:-0.92620411 3:1.0784061 4:-0.22501802 5:0.43070029 6:0.25765575 
30.835033936318862 1:0.95145333 2:2.328965 3:1.5155033 4:-1.1060596 5:1.2922732 6:-0.63203952 
48.673913546942906 1:0.95145333 2:2.328965 3:1.5155033 4:0.65602357 5:1.2922732 6:1.147351 
64 1:-0.1142426 2:0.15885225 3:0.64130896 4:-0.66553882 5:-8.6157289e-05 6:-1.0768871 
64 1:-2.2456345 2:-0.92620411 3:1.0784061 4:0.21550277 5:1.2922732 6:-0.18719188 
64 1:-0.1142426 2:-0.92620411 3:-1.1070797 4:-0.22501802 5:-0.86165904 6:0.25765575 
64 1:-0.1142426 2:-0.92620411 3:1.5155033 4:-1.1060596 5:-1.7232319 6:-1.5217348 
25.269734122624076 1:-1.1799385 2:-0.92620411 3:1.5155033 4:1.0965444 5:0.86148673 6:0.70250338 
64 1:-2.2456345 2:-0.92620411 3:-0.66998253 4:-1.5465804 5:-0.86165904 6:-1.0768871 
64 1:0.95145333 2:-0.92620411 3:0.64130896 4:0.65602357 5:-8.6157289e-05 6:1.147351 
17.623888714395786 1:0.95145333 2:-0.92620411 3:1.5155033 4:1.5370652 5:0.86148673 6:1.147351 
64 1:0.95145333 2:0.15885225 3:0.2042118 4:-0.22501802 5:0.43070029 6:-0.63203952 
64 1:-1.1799385 2:0.15885225 3:1.5155033 4:0.21550277 5:0.86148673 6:-0.18719188 
64 1:0.95145333 2:2.328965 3:-0.23288537 4:-1.1060596 5:-0.86165904 6:-1.0768871 
64 1:0.95145333 2:2.328965 3:-0.66998253 4:-1.5465804 5:-0.4308726 6:-1.0768871 
64 1:0.95145333 2:1.2439086 3:-1.1070797 4:0.21550277 5:-1.7232319 6:0.25765575 
64 1:0.95145333 2:-0.92620411 3:-0.23288537 4:-0.66553882 5:-0.86165904 6:-0.18719188 
64 1:-1.1799385 2:-0.92620411 3:-0.23288537 4:-1.1060596 5:-8.6157289e-05 6:-1.5217348 
26.165659562463748 1:0.95145333 2:2.328965 3:0.64130896 4:-1.5465804 5:0.86148673 6:-1.5217348 
54.741594608453326 1:0.95145333 2:0.15885225 3:-0.66998253 4:0.21550277 5:-0.4308726 6:-0.18719188 
32.684167660868027 1:0.95145333 2:-0.92620411 3:1.0784061 4:-0.22501802 5:1.2922732 6:-0.63203952 
12.637353919072144 1:0.95145333 2:-0.92620411 3:0.64130896 4:1.0965444 5:0.86148673 6:1.5921986 
2.9577132071438266 1:0.95145333 2:-0.92620411 3:1.0784061 4:-1.5465804 5:1.2922732 6:-1.5217348 
64 1:0.95145333 2:2.328965 3:1.0784061 4:-0.66553882 5:1.2922732 6:-0.18719188 
64 1:-0.1142426 2:-0.92620411 3:1.5155033 4:0.65602357 5:0.86148673 6:0.25765575 
64 1:-0.1142426 2:-0.92620411 3:1.0784061 4:-0.22501802 5:1.2922732 6:0.25765575 
64 1:-0.1142426 2:0.15885225 3:0.2042118 4:1.0965444 5:-0.4308726 6:0.70250338 
10.763742138606968 1:-0.1142426 2:1.2439086 3:1.0784061 4:1.0965444 5:1.2922732 6:1.5921986 
64 1:0.95145333 2:-0.92620411 3:-1.1070797 4:1.5370652 5:-0.86165904 6:1.147351 
64 1:-1.1799385 2:-0.92620411 3:-1.5441769 4:-0.66553882 5:-1.2924455 6:-0.63203952 
55.748743069956788 1:-0.1142426 2:-0.92620411 3:-0.23288537 4:0.21550277 5:-0.86165904 6:0.70250338 
64 1:0.95145333 2:-0.92620411 3:-1.1070797 4:-0.66553882 5:-1.7232319 6:-0.18719188 
64 1:-0.1142426 2:1.2439086 3:1.0784061 4:0.21550277 5:0.43070029 6:-0.18719188 
64 1:0.95145333 2:-0.92620411 3:-0.66998253 4:-0.66553882 5:-1.2924455 6:-1.0768871 
64 1:-1.1799385 2:0.15885225 3:0.2042118 4:-1.1060596 5:0.43070029 6:-0.63203952 
22.204154137406917 1:0.95145333 2:0.15885225 3:-1.1070797 4:-0.22501802 5:-1.7232319 6:-0.63203952 
-25.678986795660684 1:0.95145333 2:-0.92620411 3:-0.66998253 4:-1.1060596 5:-1.7232319 6:-1.0768871 
-6.2161416938129621 1:0.95145333 2:-0.92620411 3:1.5155033 4:1.0965444 5:1.2922732 6:0.25765575 
-64 1:-1.1799385 2:-0.92620411 3:-0.66998253 4:1.0965444 5:-0.86165904 6:0.25765575 
-64 1:0.95145333 2:0.15885225 3:-1.1070797 4:1.0965444 5:-1.2924455 6:0.25765575 
-64 1:-1.1799385 2:-0.92620411 3:0.64130896 4:-0.66553882 5:1.2922732 6:-0.63203952 
-54.779996609362001 1:0.95145333 2:-0.92620411 3:-0.66998253 4:-0.22501802 5:-0.86165904 6:0.70250338 
-64 1:-1.1799385 2:-0.92620411 3:1.0784061 4:1.0965444 5:-8.6157289e-05 6:1.147351 
-15.359116728326971 1:-1.1799385 2:-0.92620411 3:0.64130896 4:-1.1060596 5:-0.4308726 6:-1.5217348 
-64 1:-0.1142426 2:-0.92620411 3:1.0784061 4:1.5370652 5:0.86148673 6:0.70250338 
-64 1:-0.1142426 2:-0.92620411 3:0.64130896 4:0.65602357 5:1.2922732 6:0.70250338 
-64 1:0.95145333 2:1.2439086 3:-0.66998253 4:-0.22501802 5:-1.2924455 6:-0.63203952 
-64 1:-2.2456345 2:-0.92620411 3:-0.23288537 4:-0.22501802 5:0.43070029 6:-0.18719188 
-64 1:-1.1799385 2:-0.92620411 3:1.0784061 4:0.65602357 5:0.86148673 6:-0.18719188 
-64 1:-1.1799385 2:0.15885225 3:1.0784061 4:-1.1060596 5:0.86148673 6:-0.18719188 
-64 1:-2.2456345 2:-0.92620411 3:1.0784061 4:0.21550277 5:-8.6157289e-05 6:0.25765575 
-0.53274716044661607 1:0.95145333 2:0.15885225 3:0.2042118 4:1.5370652 5:-0.86165904 6:1.5921986 
-64 1:-2.2456345 2:-0.92620411 3:1.5155033 4:-0.66553882 5:1.2922732 6:0.25765575 
-21.26942687614417 1:0.95145333 2:0.15885225 3:1.0784061 4:0.65602357 5:0.86148673 6:1.5921986 
-38.12750235777095 1:0.95145333 2:2.328965 3:0.64130896 4:-1.1060596 5:1.2922732 6:-0.63203952 
-64 1:-0.1142426 2:0.15885225 3:0.64130896 4:-0.22501802 5:-0.4308726 6:-0.18719188 
-13.48212851215926 1:-0.1142426 2:0.15885225 3:-0.23288537 4:0.21550277 5:0.43070029 6:0.25765575 
-64 1:0.95145333 2:-0.92620411 3:-1.5441769 4:-0.66553882 5:-1.7232319 6:-1.5217348 
-64 1:0.95145333 2:2.328965 3:0.2042118 4:-1.5465804 5:-0.86165904 6:-1.0768871 
-42.954514895410178 1:0.95145333 2:2.328965 3:1.0784061 4:0.21550277 5:0.86148673 6:1.147351 
-64 1:0.95145333 2:-0.92620411 3:-0.66998253 4:-0.66553882 5:-1.7232319 6:-0.63203952 
-62.896171112527028 1:0.95145333 2:2.328965 3:-0.66998253 4:-1.5465804 5:-8.6157289e-05 6:-1.5217348 
-64 1:-0.1142426 2:1.2439086 3:1.5155033 4:-1.1060596 5:0.43070029 6:-1.0768871 
-64 1:-0.1142426 2:-0.92620411 3:0.2042118 4:0.21550277 5:-0.86165904 6:0.25765575 
-64 1:0.95145333 2:-0.92620411 3:0.64130896 4:0.21550277 5:0.43070029 6:1.147351 
-64 1:0.95145333 2:1.2439086 3:1.0784061 4:0.21550277 5:0.86148673 6:1.147351 
-64 1:0.95145333 2:0.15885225 3:-1.1070797 4:0.21550277 5:-1.2924455 6:1.147351 
-37.194877237061029 1:0.95145333 2:1.2439086 3:-0.23288537 4:-1.1060596 5:-0.4308726 6:-1.5217348 
-64 1:0.95145333 2:0.15885225 3:-0.66998253 4:1.0965444 5:-8.6157289e-05 6:1.147351 
-64 1:-0.1142426 2:-0.92620411 3:-0.23288537 4:-1.1060596 5:-8.6157289e-05 6:-0.63203952 
-64 1:0.95145333 2:-0.92620411 3:-0.66998253 4:1.0965444 5:-1.7232319 6:1.147351 
-46.80042574520138 1:-1.1799385 2:-0.92620411 3:1.0784061 4:-1.1060596 5:0.86148673 6:-0.18719188 
-54.786275073605374 1:-0.1142426 2:0.15885225 3:0.2042118 4:1.0965444 5:-0.86165904 6:1.147351 
-64 1:-0.1142426 2:-0.92620411 3:-0.66998253 4:0.21550277 5:-0.86165904 6:-0.63203952 
-64 1:-0.1142426 2:0.15885225 3:-1.1070797 4:-1.5465804 5:-1.7232319 6:-1.0768871 
-64 1:0.95145333 2:-0.92620411 3:0.64130896 4:0.21550277 5:-0.4308726 6:0.25765575 
-17.588772115093899 1:-0.1142426 2:1.2439086 3:0.2042118 4:-1.5465804 5:0.86148673 6:-1.5217348 
-12.187598936717517 1:-0.1142426 2:0.15885225 3:0.2042118 4:0.21550277 5:-8.6157289e-05 6:1.147351 
-15.949379115724946 1:0.95145333 2:2.328965 3:0.64130896 4:1.5370652 5:1.2922732 6:1.147351 
-64 1:-0.1142426 2:0.15885225 3:-1.1070797 4:-0.66553882 5:-1.2924455 6:-0.18719188 
-52.351099842467413 1:0.95145333 2:-0.92620411 3:-1.5441769 4:0.21550277 5:-1.2924455 6:-0.63203952 
-11.434351869019519 1:0.95145333 2:2.328965 3:0.64130896 4:-1.1060596 5:-0.4308726 6:-1.5217348 
-59.65630382211237 1:0.95145333 2:2.328965 3:1.0784061 4:-1.5465804 5:0.43070029 6:-0.63203952 
-12.907374141977735 1:0.95145333 2:1.2439086 3:-1.5441769 4:-1.5465804 5:-1.2924455 6:-0.63203952 
-64 1:-1.1799385 2:-0.92620411 3:-0.66998253 4:-0.22501802 5:-0.86165904 6:0.70250338 
-64 1:-2.2456345 2:-0.92620411 3:-1.1070797 4:-1.1060596 5:-0.86165904 6:-1.0768871 
-64 1:-2.2456345 2:-0.92620411 3:0.64130896 4:-1.1060596 5:-0.4308726 6:-1.0768871 
-29.44123733770731 1:-0.1142426 2:1.2439086 3:1.0784061 4:-0.22501802 5:0.86148673 6:-1.0768871 
-0.37524109128124511 1:0.95145333 2:1.2439086 3:0.2042118 4:1.5370652 5:-0.86165904 6:1.147351 
-10.593805281570933 1:0.95145333 2:-0.92620411 3:-0.66998253 4:1.5370652 5:-1.7232319 6:1.5921986 
-2.0858593421358584 1:0.95145333 2:0.15885225 3:1.5155033 4:-1.5465804 5:1.2922732 6:-0.63203952 
-64 1:-2.2456345 2:-0.92620411 3:0.2042118 4:-1.5465804 5:-0.4308726 6:-0.63203952 
-47.343999452704374 1:-1.1799385 2:-0.92620411 3:0.2042118 4:-0.66553882 5:-8.6157289e-05 6:0.25765575 
-64 1:-1.1799385 2:-0.92620411 3:-1.5441769 4:0.65602357 5:-0.86165904 6:0.70250338 
-61.048990367720485 1:-1.1799385 2:0.15885225 3:0.64130896 4:-0.66553882 5:0.43070029 6:0.25765575 
-64 1:0.95145333 2:2.328965 3:0.2042118 4:0.21550277 5:0.43070029 6:0.70250338 
-64 1:0.95145333 2:1.2439086 3:0.2042118 4:-1.1060596 5:-8.6157289e-05 6:-1.5217348 
-55.55146093941763 1:-1.1799385 2:0.15885225 3:1.5155033 4:1.0965444 5:1.2922732 6:0.25765575 
-64 1:-1.1799385 2:-0.92620411 3:1.5155033 4:0.65602357 5:0.43070029 6:0.70250338 
-64 1:-1.1799385 2:-0.92620411 3:0.64130896 4:-1.1060596 5:-0.4308726 6:-1.0768871 
-44.054769564235919 1:-0.1142426 2:-0.92620411 3:-1.5441769 4:0.65602357 5:-1.7232319 6:1.5921986 
-64 1:0.95145333 2:1.2439086 3:-1.5441769 4:-0.22501802 5:-1.7232319 6:-1.0768871 
-64 1:-0.1142426 2:-0.92620411 3:-0.66998253 4:0.65602357 5:-1.7232319 6:0.70250338 
-64 1:0.95145333 2:1.2439086 3:-1.1070797 4:0.65602357 5:-1.2924455 6:1.5921986 
-64 1:-1.1799385 2:-0.92620411 3:-0.66998253 4:-0.66553882 5:-0.86165904 6:0.25765575 
-64 1:-1.1799385 2:-0.92620411 3:1.0784061 4:-0.66553882 5:-8.6157289e-05 6:-0.63203952 
-58.352219875551199 1:-0.1142426 2:-0.92620411 3:1.5155033 4:0.21550277 5:1.2922732 6:1.147351 
-17.981582481309921 1:-1.1799385 2:-0.92620411 3:1.5155033 4:0.21550277 5:0.43070029 6:0.25765575 
-8.8015225580089105 1:0.95145333 2:1.2439086 3:-1.5441769 4:1.0965444 5:-1.7232319 6:0.25765575 
-64 1:0.95145333 2:1.2439086 3:0.64130896 4:0.21550277 5:1.2922732 6:0.25765575 
-39.569477889268995 1:0.95145333 2:0.15885225 3:-0.23288537 4:0.21550277 5:0.43070029 6:0.25765575 
-47.157625560577031 1:-1.1799385 2:-0.92620411 3:1.5155033 4:-0.22501802 5:1.2922732 6:0.70250338 
-64 1:0.95145333 2:1.2439086 3:0.64130896 4:-0.66553882 5:1.2922732 6:-0.63203952 
-64 1:-2.2456345 2:-0.92620411 3:0.2042118 4:0.65602357 5:0.86148673 6:0.70250338 
-7.7149021220235721 1:0.95145333 2:1.2439086 3:-1.1070797 4:1.5370652 5:-0.86165904 6:0.70250338 
-64 1:-0.1142426 2:1.2439086 3:-1.1070797 4:-1.1060596 5:-1.2924455 6:-1.5217348 
-64 1:-0.1142426 2:-0.92620411 3:-1.1070797 4:-1.1060596 5:-1.7232319 6:-1.0768871 
-20.708587217837575 1:0.95145333 2:0.15885225 3:-0.23288537 4:1.5370652 5:0.43070029 6:1.5921986 
-64 1:-1.1799385 2:-0.92620411 3:-0.23288537 4:0.65602357 5:-0.4308726 6:-0.18719188 
-64 1:0.95145333 2:-0.92620411 3:-0.66998253 4:-1.1060596 5:-1.2924455 6:-1.0768871 
-64 1:0.95145333 2:0.15885225 3:0.2042118 4:0.65602357 5:-0.86165904 6:0.70250338 
-64 1:0.95145333 2:0.15885225 3:0.2042118 4:-0.66553882 5:-8.6157289e-05 6:-0.18719188 
-64 1:-2.2456345 2:-0.92620411 3:-0.66998253 4:-0.22501802 5:-0.86165904 6:-1.0768871 
-16.198958955702871 1:0.95145333 2:-0.92620411 3:1.5155033 4:-0.22501802 5:1.2922732 6:-1.0768871 
-64 1:-1.1799385 2:0.15885225 3:-0.66998253 4:-0.66553882 5:-0.4308726 6:-0.18719188 
-37.351331646534533 1:0.95145333 2:-0.92620411 3:-1.5441769 4:1.5370652 5:-0.86165904 6:1.5921986 
-64 1:-1.1799385 2:0.15885225 3:1.0784061 4:-0.66553882 5:0.86148673 6:0.25765575 
-64 1:-0.1142426 2:-0.92620411 3:-0.66998253 4:-1.1060596 5:-0.86165904 6:-0.63203952 
-64 1:0.95145333 2:-0.92620411 3:1.0784061 4:1.5370652 5:-8.6157289e-05 6:1.5921986 
-44.690367531754305 1:-2.2456345 2:-0.92620411 3:1.5155033 4:-0.22501802 5:0.43070029 6:-0.18719188 
-64 1:-1.1799385 2:-0.92620411 3:-0.66998253 4:-0.22501802 5:-1.7232319 6:-0.18719188 
-64 1:-2.2456345 2:-0.92620411 3:0.64130896 4:-1.5465804 5:-0.4308726 6:-1.5217348 
-64 1:0.95145333 2:2.328965 3:1.5155033 4:0.21550277 5:1.2922732 6:-0.63203952 
-1.1497066995748357 1:-1.1799385 2:-0.92620411 3:-0.66998253 4:1.5370652 5:-1.7232319 6:1.147351 
-2.7422494757610587 1:0.95145333 2:-0.92620411 3:1.0784061 4:1.0965444 5:0.86148673 6:0.25765575 
-64 1:-0.1142426 2:-0.92620411 3:-0.66998253 4:-0.22501802 5:-8.6157289e-05 6:-0.18719188 
-64 1:-0.1142426 2:-0.92620411 3:-0.23288537 4:-1.5465804 5:-8.6157289e-05 6:-1.5217348 
-55.218960149172261 1:-2.2456345 2:-0.92620411 3:0.64130896 4:1.0965444 5:1.2922732 6:1.147351 
-64 1:0.95145333 2:-0.92620411 3:0.2042118 4:-1.1060596 5:-0.4308726 6:-0.63203952 
-17.268314491503872 1:-1.1799385 2:0.15885225 3:0.64130896 4:-1.5465804 5:1.2922732 6:-1.0768871 
-50.139116234945341 1:0.95145333 2:-0.92620411 3:-0.66998253 4:0.65602357 5:-8.6157289e-05 6:0.70250338 
-48.007685813338604 1:0.95145333 2:0.15885225 3:-1.5441769 4:-1.5465804 5:-1.7232319 6:-0.63203952 
-64 1:-1.1799385 2:-0.92620411 3:1.5155033 4:-0.66553882 5:0.43070029 6:-0.63203952 
-57.056152911490408 1:-1.1799385 2:-0.92620411 3:0.64130896 4:-0.22501802 5:1.2922732 6:-0.18719188 
-34.344217162456573 1:0.95145333 2:0.15885225 3:0.2042118 4:-0.66553882 5:0.86148673 6:-0.63203952 
-43.611322976310404 1:0.95145333 2:-0.92620411 3:-0.23288537 4:1.5370652 5:-1.2924455 6:1.5921986 
-64 1:-0.1142426 2:0.15885225 3:-0.23288537 4:-1.1060596 5:-8.6157289e-05 6:-1.5217348 
-16.959809047225686 1:-0.1142426 2:0.15885225 3:1.5155033 4:-0.22501802 5:1.2922732 6:-1.0768871 
-64 1:-1.1799385 2:-0.92620411 3:-1.5441769 4:-1.1060596 5:-1.2924455 6:-0.63203952 
-64 1:-1.1799385 2:-0.92620411 3:0.2042118 4:0.65602357 5:-8.6157289e-05 6:1.5921986 
-20.325093334184132 1:-1.1799385 2:0.15885225 3:1.0784061 4:-0.66553882 5:-8.6157289e-05 6:-0.63203952 
-46.814625463768969 1:-1.1799385 2:0.15885225 3:0.64130896 4:0.21550277 5:0.43070029 6:-0.63203952 
-64 1:-2.2456345 2:-0.92620411 3:1.0784061 4:0.21550277 5:0.86148673 6:-0.63203952 
-64 1:0.95145333 2:1.2439086 3:1.0784061 4:-1.5465804 5:0.86148673 6:-0.63203952 
-64 1:-1.1799385 2:-0.92620411 3:-0.66998253 4:-1.1060596 5:-0.4308726 6:-1.0768871 
-53.023091422881492 1:-0.1142426 2:-0.92620411 3:-1.5441769 4:-0.66553882 5:-1.7232319 6:-1.5217348 
-64 1:-0.1142426 2:-0.92620411 3:-1.1070797 4:0.21550277 5:-1.2924455 6:1.147351 
-64 1:0.95145333 2:1.2439086 3:0.2042118 4:-0.66553882 5:0.43070029 6:-0.18719188 
-64 1:-2.2456345 2:-0.92620411 3:-0.23288537 4:-0.66553882 5:0.43070029 6:-0.63203952 
-38.356638625988019 1:-1.1799385 2:-0.92620411 3:0.64130896 4:-1.5465804 5:1.2922732 6:-1.5217348 
-64 1:-1.1799385 2:-0.92620411 3:0.2042118 4:-0.66553882 5:-0.86165904 6:-0.63203952 
-64 1:-0.1142426 2:0.15885225 3:1.0784061 4:-0.22501802 5:0.86148673 6:-1.0768871 
-64 1:0.95145333 2:-0.92620411 3:-1.1070797 4:0.21550277 5:-0.4308726 6:0.25765575 
-64 1:0.95145333 2:0.15885225 3:0.2042118 4:0.21550277 5:0.86148673 6:0.25765575 
-64 1:0.95145333 2:-0.92620411 3:0.2042118 4:-1.1060596 5:0.43070029 6:-1.0768871 
-64 1:0.95145333 2:1.2439086 3:-1.5441769 4:0.21550277 5:-0.86165904 6:0.25765575 
-64 1:-1.1799385 2:0.15885225 3:0.64130896 4:-0.22501802 5:1.2922732 6:-0.18719188 
-64 1:-0.1142426 2:1.2439086 3:-0.23288537 4:-1.1060596 5:-8.6157289e-05 6:-1.5217348 
-64 1:-0.1142426 2:-0.92620411 3:-0.66998253 4:0.65602357 5:-0.86165904 6:1.5921986 
-64 1:0.95145333 2:-0.92620411 3:0.2042118 4:-1.1060596 5:-8.6157289e-05 6:-0.63203952 
-15.976155178254853 1:-1.1799385 2:0.15885225 3:0.2042118 4:-1.1060596 5:-8.6157289e-05 6:-0.18719188 
-14.778314711892891 1:0.95145333 2:1.2439086 3:0.2042118 4:-1.1060596 5:0.43070029 6:-1.5217348 
-26.485242818330523 1:-1.1799385 2:0.15885225 3:0.64130896 4:-1.5465804 5:-0.4308726 6:-1.0768871 
-0.42321581258566593 1:0.95145333 2:2.328965 3:0.64130896 4:-0.66553882 5:1.2922732 6:-1.0768871 
-48.66547305427823 1:0.95145333 2:-0.92620411 3:1.0784061 4:0.21550277 5:0.86148673 6:-0.63203952 
-64 1:0.95145333 2:-0.92620411 3:-0.66998253 4:0.21550277 5:-8.6157289e-05 6:0.25765575 
-64 1:0.95145333 2:-0.92620411 3:-0.66998253 4:-1.1060596 5:-1.2924455 6:-0.63203952 
-64 1:0.95145333 2:-0.92620411 3:1.0784061 4:0.65602357 5:0.86148673 6:1.5921986 
-64 1:-1.1799385 2:-0.92620411 3:1.0784061 4:-1.1060596 5:-8.6157289e-05 6:-1.0768871 
-26.706696328002657 1:-0.1142426 2:0.15885225 3:1.5155033 4:1.5370652 5:0.43070029 6:1.5921986 
-64 1:0.95145333 2:1.2439086 3:0.64130896 4:0.21550277 5:-0.4308726 6:0.25765575 
-27.120746343270628 1:-0.1142426 2:0.15885225 3:0.2042118 4:-0.22501802 5:-0.86165904 6:-0.18719188 
-4.1914098137907212 1:0.95145333 2:-0.92620411 3:1.5155033 4:-1.5465804 5:1.2922732 6:-0.63203952 
-64 1:-0.1142426 2:0.15885225 3:1.5155033 4:0.21550277 5:0.43070029 6:0.25765575 
-64 1:0.95145333 2:0.15885225 3:-0.66998253 4:-0.22501802 5:-1.7232319 6:-0.18719188 
-22.323866725882056 1:0.95145333 2:0.15885225 3:-1.1070797 4:0.65602357 5:-1.2924455 6:1.5921986 
-49.916784873853196 1:-0.1142426 2:-0.92620411 3:1.5155033 4:-1.5465804 5:1.2922732 6:-0.63203952 
-64 1:-1.1799385 2:0.15885225 3:1.0784061 4:-0.22501802 5:0.86148673 6:-1.0768871 
-64 1:-0.1142426 2:0.15885225 3:-0.66998253 4:-0.66553882 5:-0.86165904 6:-0.18719188 
-64 1:-0.1142426 2:-0.92620411 3:-0.66998253 4:0.21550277 5:-1.7232319 6:0.25765575 
-41.143165659560154 1:0.95145333 2:2.328965 3:-0.66998253 4:-0.66553882 5:-1.2924455 6:-1.0768871 
-64 1:-0.1142426 2:0.15885225 3:-1.5441769 4:1.0965444 5:-0.86165904 6:1.147351 
-23.688317207887813 1:0.95145333 2:1.2439086 3:1.5155033 4:1.5370652 5:1.2922732 6:0.70250338 
-12.276158931752361 1:-0.1142426 2:-0.92620411 3:1.5155033 4:-0.66553882 5:0.86148673 6:-1.5217348 
-14.625520123546735 1:-2.2456345 2:-0.92620411 3:1.5155033 4:-1.1060596 5:0.43070029 6:-1.0768871 
-50.704550948645277 1:0.95145333 2:-0.92620411 3:-1.5441769 4:0.65602357 5:-0.86165904 6:0.70250338 
-64 1:-0.1142426 2:1.2439086 3:-0.23288537 4:-0.66553882 5:-8.6157289e-05 6:-0.18719188 
-64 1:-0.1142426 2:-0.92620411 3:-1.1070797 4:1.0965444 5:-1.2924455 6:0.25765575 
-35.119439935139184 1:-2.2456345 2:-0.92620411 3:1.5155033 4:-0.22501802 5:1.2922732 6:-1.0768871 
-58.096474301718509 1:-0.1142426 2:0.15885225 3:-0.66998253 4:0.65602357 5:-1.7232319 6:0.70250338 
-64 1:-0.1142426 2:0.15885225 3:1.0784061 4:-1.5465804 5:0.86148673 6:-0.63203952 
-64 1:0.95145333 2:2.328965 3:0.2042118 4:0.21550277 5:0.43070029 6:-0.18719188 
-46.331380138460702 1:0.95145333 2:-0.92620411 3:1.5155033 4:-0.66553882 5:0.43070029 6:-1.0768871 
-18.110612416797043 1:0.95145333 2:0.15885225 3:-0.66998253 4:-1.5465804 5:-1.2924455 6:-1.5217348 
-64 1:0.95145333 2:0.15885225 3:-1.1070797 4:1.5370652 5:-1.2924455 6:0.70250338 
-64 1:0.95145333 2:-0.92620411 3:1.0784061 4:-0.66553882 5:0.86148673 6:-1.5217348 
-64 1:0.95145333 2:0.15885225 3:-1.1070797 4:0.21550277 5:-1.2924455 6:-0.63203952 
-47.374808622187921 1:-2.2456345 2:-0.92620411 3:0.64130896 4:-1.1060596 5:1.2922732 6:-1.0768871 
-3.3276079848467632 1:0.95145333 2:1.2439086 3:1.5155033 4:1.5370652 5:0.43070029 6:1.147351 
-64 1:0.95145333 2:2.328965 3:1.5155033 4:-0.66553882 5:1.2922732 6:0.25765575 
-64 1:0.95145333 2:-0.92620411 3:0.2042118 4:-0.22501802 5:-8.6157289e-05 6:0.70250338 
-53.564780380390644 1:-0.1142426 2:0.15885225 3:-0.23288537 4:1.5370652 5:-0.4308726 6:0.70250338 
-45.960602297336798 1:0.95145333 2:-0.92620411 3:0.64130896 4:-0.22501802 5:0.43070029 6:0.70250338 
-64 1:-0.1142426 2:1.2439086 3:1.5155033 4:-1.5465804 5:0.43070029 6:-1.0768871 
-14.892248934896095 1:-2.2456345 2:-0.92620411 3:1.5155033 4:1.5370652 5:1.2922732 6:0.70250338 
-64 1:-0.1142426 2:-0.92620411 3:0.64130896 4:-0.22501802 5:-0.4308726 6:-0.18719188 
-64 1:0.95145333 2:2.328965 3:-0.23288537 4:-0.66553882 5:-8.6157289e-05 6:-1.0768871 
-45.604599384362906 1:-0.1142426 2:1.2439086 3:1.0784061 4:1.0965444 5:0.86148673 6:0.25765575 
-64 1:-0.1142426 2:0.15885225 3:1.0784061 4:-0.66553882 5:-8.6157289e-05 6:-0.63203952 
-64 1:-1.1799385 2:0.15885225 3:1.0784061 4:-1.1060596 5:-8.6157289e-05 6:-1.0768871 
-64 1:-1.1799385 2:-0.92620411 3:0.2042118 4:-0.66553882 5:-8.6157289e-05 6:-1.5217348 
-14.639708182980332 1:0.95145333 2:2.328965 3:-0.23288537 4:-1.5465804 5:-1.2924455 6:-1.0768871 
-64 1:0.95145333 2:1.2439086 3:-0.66998253 4:0.65602357 5:-1.7232319 6:0.70250338 
-64 1:0.95145333 2:2.328965 3:0.2042118 4:-0.66553882 5:0.43070029 6:-0.18719188 
-17.113145604756241 1:-0.1142426 2:0.15885225 3:1.0784061 4:0.65602357 5:-8.6157289e-05 6:0.70250338 
-64 1:0.95145333 2:1.2439086 3:1.0784061 4:1.0965444 5:0.86148673 6:0.25765575 
-64 1:-0.1142426 2:-0.92620411 3:-1.5441769 4:0.21550277 5:-0.86165904 6:0.25765575 
-64 1:-1.1799385 2:-0.92620411 3:0.64130896 4:1.0965444 5:1.2922732 6:1.147351 
-64 1:-0.1142426 2:0.15885225 3:-1.5441769 4:1.0965444 5:-1.7232319 6:0.25765575 
-64 1:0.95145333 2:1.2439086 3:1.5155033 4:-0.22501802 5:0.43070029 6:-0.18719188 
-36.833049296394385 1:-0.1142426 2:0.15885225 3:-1.5441769 4:0.65602357 5:-0.86165904 6:0.70250338 
-30.446939246116319 1:-1.1799385 2:-0.92620411 3:-0.66998253 4:-1.5465804 5:-0.4308726 6:-1.5217348 
-42.294963062893402 1:0.95145333 2:0.15885225 3:0.64130896 4:1.5370652 5:0.43070029 6:0.70250338 
-64 1:0.95145333 2:2.328965 3:1.5155033 4:-1.1060596 5:0.43070029 6:-1.5217348 
-39.075822825081396 1:0.95145333 2:0.15885225 3:-1.5441769 4:-0.66553882 5:-1.7232319 6:0.25765575 
-64 1:0.95145333 2:-0.92620411 3:0.64130896 4:1.0965444 5:0.43070029 6:0.25765575 
-42.220484303642358 1:-0.1142426 2:0.15885225 3:1.5155033 4:-1.5465804 5:0.43070029 6:-1.0768871 
-11.739014903769968 1:0.95145333 2:0.15885225 3:-0.66998253 4:0.21550277 5:-0.86165904 6:1.147351 
-16.233847190754727 1:0.95145333 2:2.328965 3:1.5155033 4:-0.66553882 5:1.2922732 6:-1.5217348 
-27.953103567453528 1:0.95145333 2:1.2439086 3:1.5155033 4:-1.1060596 5:1.2922732 6:-0.18719188 
-64 1:0.95145333 2:1.2439086 3:-0.23288537 4:0.65602357 5:-0.4308726 6:1.5921986 
-12.470031461489382 1:-2.2456345 2:-0.92620411 3:0.2042118 4:-1.5465804 5:-0.86165904 6:-1.0768871 
-10.846359510164142 1:-1.1799385 2:0.15885225 3:0.2042118 4:-0.22501802 5:-8.6157289e-05 6:-1.0768871 
